<?xml version="1.0"?>
<opencv_storage>
<cascade>
  <stageType>BOOST</stageType>
  <featureType>HAAR</featureType>
  <height>30</height>
  <width>30</width>
  <stageParams>
    <boostType>GAB</boostType>
    <minHitRate>9.9500000476837158e-01</minHitRate>
    <maxFalseAlarm>3.0000001192092896e-01</maxFalseAlarm>
    <weightTrimRate>9.4999999999999996e-01</weightTrimRate>
    <maxDepth>1</maxDepth>
    <maxWeakCount>100</maxWeakCount></stageParams>
  <featureParams>
    <maxCatCount>0</maxCatCount>
    <featSize>1</featSize>
    <mode>BASIC</mode></featureParams>
  <stageNum>9</stageNum>
  <stages>
    <!-- stage 0 -->
    <_>
      <maxWeakCount>2</maxWeakCount>
      <stageThreshold>-5.5612206459045410e-02</stageThreshold>
      <weakClassifiers>
        <_>
          <internalNodes>
            0 -1 4 4.1287042200565338e-02</internalNodes>
          <leafValues>
            -9.7874224185943604e-01 9.6222412586212158e-01</leafValues></_>
        <_>
          <internalNodes>
            0 -1 19 -7.8930854797363281e-02</internalNodes>
          <leafValues>
            -9.6177977323532104e-01 9.2313003540039063e-01</leafValues></_></weakClassifiers></_>
    <!-- stage 1 -->
    <_>
      <maxWeakCount>2</maxWeakCount>
      <stageThreshold>-8.3862848579883575e-02</stageThreshold>
      <weakClassifiers>
        <_>
          <internalNodes>
            0 -1 26 5.2444621920585632e-02</internalNodes>
          <leafValues>
            -9.2596065998077393e-01 8.8916462659835815e-01</leafValues></_>
        <_>
          <internalNodes>
            0 -1 30 -3.5516925156116486e-02</internalNodes>
          <leafValues>
            8.4209775924682617e-01 -8.9649814367294312e-01</leafValues></_></weakClassifiers></_>
    <!-- stage 2 -->
    <_>
      <maxWeakCount>2</maxWeakCount>
      <stageThreshold>3.2657466828823090e-02</stageThreshold>
      <weakClassifiers>
        <_>
          <internalNodes>
            0 -1 9 2.7010478079319000e-02</internalNodes>
          <leafValues>
            -8.4489798545837402e-01 9.0495049953460693e-01</leafValues></_>
        <_>
          <internalNodes>
            0 -1 52 -3.7538468837738037e-02</internalNodes>
          <leafValues>
            8.7755542993545532e-01 -8.2384127378463745e-01</leafValues></_></weakClassifiers></_>
    <!-- stage 3 -->
    <_>
      <maxWeakCount>6</maxWeakCount>
      <stageThreshold>-1.1389310359954834e+00</stageThreshold>
      <weakClassifiers>
        <_>
          <internalNodes>
            0 -1 24 -1.1859589256346226e-02</internalNodes>
          <leafValues>
            -5.2974969148635864e-01 8.2100623846054077e-01</leafValues></_>
        <_>
          <internalNodes>
            0 -1 32 3.5917051136493683e-02</internalNodes>
          <leafValues>
            -5.9930437803268433e-01 7.2983652353286743e-01</leafValues></_>
        <_>
          <internalNodes>
            0 -1 31 -3.2839342951774597e-02</internalNodes>
          <leafValues>
            6.5349811315536499e-01 -6.9843381643295288e-01</leafValues></_>
        <_>
          <internalNodes>
            0 -1 45 2.1927014458924532e-03</internalNodes>
          <leafValues>
            -7.0098751783370972e-01 5.1316601037979126e-01</leafValues></_>
        <_>
          <internalNodes>
            0 -1 15 7.1363942697644234e-03</internalNodes>
          <leafValues>
            -6.4241039752960205e-01 5.0740015506744385e-01</leafValues></_>
        <_>
          <internalNodes>
            0 -1 51 -7.5343144126236439e-03</internalNodes>
          <leafValues>
            4.3486428260803223e-01 -6.4911812543869019e-01</leafValues></_></weakClassifiers></_>
    <!-- stage 4 -->
    <_>
      <maxWeakCount>5</maxWeakCount>
      <stageThreshold>-1.0471496731042862e-01</stageThreshold>
      <weakClassifiers>
        <_>
          <internalNodes>
            0 -1 8 6.7455723881721497e-02</internalNodes>
          <leafValues>
            -5.7115381956100464e-01 7.3618841171264648e-01</leafValues></_>
        <_>
          <internalNodes>
            0 -1 49 -3.4545166417956352e-03</internalNodes>
          <leafValues>
            5.5720371007919312e-01 -7.9408508539199829e-01</leafValues></_>
        <_>
          <internalNodes>
            0 -1 11 -1.1277420446276665e-02</internalNodes>
          <leafValues>
            -4.6330958604812622e-01 7.1870839595794678e-01</leafValues></_>
        <_>
          <internalNodes>
            0 -1 12 1.1778096668422222e-03</internalNodes>
          <leafValues>
            -9.3602937459945679e-01 3.1703582406044006e-01</leafValues></_>
        <_>
          <internalNodes>
            0 -1 22 -1.0574885644018650e-02</internalNodes>
          <leafValues>
            2.2477976977825165e-01 -9.8886305093765259e-01</leafValues></_></weakClassifiers></_>
    <!-- stage 5 -->
    <_>
      <maxWeakCount>7</maxWeakCount>
      <stageThreshold>-6.7383521795272827e-01</stageThreshold>
      <weakClassifiers>
        <_>
          <internalNodes>
            0 -1 21 -2.6744222268462181e-03</internalNodes>
          <leafValues>
            7.1906071901321411e-01 -5.6796836853027344e-01</leafValues></_>
        <_>
          <internalNodes>
            0 -1 55 -9.9612362682819366e-03</internalNodes>
          <leafValues>
            -5.4043155908584595e-01 6.1568969488143921e-01</leafValues></_>
        <_>
          <internalNodes>
            0 -1 25 5.4171122610569000e-02</internalNodes>
          <leafValues>
            -6.4802950620651245e-01 4.7830036282539368e-01</leafValues></_>
        <_>
          <internalNodes>
            0 -1 35 -5.5187813937664032e-02</internalNodes>
          <leafValues>
            3.7971264123916626e-01 -8.1476438045501709e-01</leafValues></_>
        <_>
          <internalNodes>
            0 -1 50 3.2061911188066006e-03</internalNodes>
          <leafValues>
            -4.4331413507461548e-01 6.6328173875808716e-01</leafValues></_>
        <_>
          <internalNodes>
            0 -1 16 -3.1297080218791962e-02</internalNodes>
          <leafValues>
            7.1676540374755859e-01 -3.6220425367355347e-01</leafValues></_>
        <_>
          <internalNodes>
            0 -1 5 -2.2950754500925541e-03</internalNodes>
          <leafValues>
            3.8207012414932251e-01 -6.1095511913299561e-01</leafValues></_></weakClassifiers></_>
    <!-- stage 6 -->
    <_>
      <maxWeakCount>10</maxWeakCount>
      <stageThreshold>-5.6098121404647827e-01</stageThreshold>
      <weakClassifiers>
        <_>
          <internalNodes>
            0 -1 53 -5.0448283553123474e-02</internalNodes>
          <leafValues>
            6.5515816211700439e-01 -4.8039728403091431e-01</leafValues></_>
        <_>
          <internalNodes>
            0 -1 7 4.3829828500747681e-02</internalNodes>
          <leafValues>
            -5.9141522645950317e-01 5.8612227439880371e-01</leafValues></_>
        <_>
          <internalNodes>
            0 -1 33 -4.6729072928428650e-03</internalNodes>
          <leafValues>
            6.1605221033096313e-01 -3.2111316919326782e-01</leafValues></_>
        <_>
          <internalNodes>
            0 -1 3 -1.5481035411357880e-01</internalNodes>
          <leafValues>
            -3.5694378614425659e-01 5.7307547330856323e-01</leafValues></_>
        <_>
          <internalNodes>
            0 -1 28 -2.0473735639825463e-04</internalNodes>
          <leafValues>
            2.9440519213676453e-01 -6.9601362943649292e-01</leafValues></_>
        <_>
          <internalNodes>
            0 -1 29 -4.7606330364942551e-02</internalNodes>
          <leafValues>
            2.3399275541305542e-01 -7.9058641195297241e-01</leafValues></_>
        <_>
          <internalNodes>
            0 -1 17 -1.9228879362344742e-02</internalNodes>
          <leafValues>
            -8.2997024059295654e-01 2.1027518808841705e-01</leafValues></_>
        <_>
          <internalNodes>
            0 -1 2 -4.2095780372619629e-02</internalNodes>
          <leafValues>
            -9.3509989976882935e-01 1.4941258728504181e-01</leafValues></_>
        <_>
          <internalNodes>
            0 -1 48 2.6028487831354141e-02</internalNodes>
          <leafValues>
            -8.2461798191070557e-01 1.6555127501487732e-01</leafValues></_>
        <_>
          <internalNodes>
            0 -1 41 8.3831968368031085e-05</internalNodes>
          <leafValues>
            1.9565084576606750e-01 -8.0813908576965332e-01</leafValues></_></weakClassifiers></_>
    <!-- stage 7 -->
    <_>
      <maxWeakCount>12</maxWeakCount>
      <stageThreshold>-7.6540851593017578e-01</stageThreshold>
      <weakClassifiers>
        <_>
          <internalNodes>
            0 -1 46 -6.7151493567507714e-05</internalNodes>
          <leafValues>
            -7.8891259431838989e-01 5.1445287466049194e-01</leafValues></_>
        <_>
          <internalNodes>
            0 -1 0 -2.1417699754238129e-02</internalNodes>
          <leafValues>
            5.6412845849990845e-01 -3.9995336532592773e-01</leafValues></_>
        <_>
          <internalNodes>
            0 -1 14 6.6182628273963928e-02</internalNodes>
          <leafValues>
            -6.6829371452331543e-01 3.4232997894287109e-01</leafValues></_>
        <_>
          <internalNodes>
            0 -1 47 -6.9621950387954712e-05</internalNodes>
          <leafValues>
            -7.5782418251037598e-01 2.3079544305801392e-01</leafValues></_>
        <_>
          <internalNodes>
            0 -1 13 -3.2019883394241333e-02</internalNodes>
          <leafValues>
            3.9677864313125610e-01 -4.9193072319030762e-01</leafValues></_>
        <_>
          <internalNodes>
            0 -1 54 -4.6876943670213223e-03</internalNodes>
          <leafValues>
            2.9146727919578552e-01 -6.5910840034484863e-01</leafValues></_>
        <_>
          <internalNodes>
            0 -1 36 5.4695461585652083e-05</internalNodes>
          <leafValues>
            2.3939977586269379e-01 -6.7201530933380127e-01</leafValues></_>
        <_>
          <internalNodes>
            0 -1 40 -7.1385633200407028e-03</internalNodes>
          <leafValues>
            3.9506509900093079e-01 -4.3672358989715576e-01</leafValues></_>
        <_>
          <internalNodes>
            0 -1 1 -1.4077511429786682e-01</internalNodes>
          <leafValues>
            -4.2762497067451477e-01 4.8847270011901855e-01</leafValues></_>
        <_>
          <internalNodes>
            0 -1 56 -4.2305333772674203e-04</internalNodes>
          <leafValues>
            -8.3826774358749390e-01 2.0168340206146240e-01</leafValues></_>
        <_>
          <internalNodes>
            0 -1 34 4.8794960603117943e-03</internalNodes>
          <leafValues>
            2.1181021630764008e-01 -7.4065488576889038e-01</leafValues></_>
        <_>
          <internalNodes>
            0 -1 42 4.8764373059384525e-04</internalNodes>
          <leafValues>
            1.5566727519035339e-01 -7.8226965665817261e-01</leafValues></_></weakClassifiers></_>
    <!-- stage 8 -->
    <_>
      <maxWeakCount>11</maxWeakCount>
      <stageThreshold>-7.2100651264190674e-01</stageThreshold>
      <weakClassifiers>
        <_>
          <internalNodes>
            0 -1 18 -2.0668040961027145e-03</internalNodes>
          <leafValues>
            5.1117223501205444e-01 -7.7682405710220337e-01</leafValues></_>
        <_>
          <internalNodes>
            0 -1 39 -6.0504656285047531e-03</internalNodes>
          <leafValues>
            4.7477173805236816e-01 -4.6109852194786072e-01</leafValues></_>
        <_>
          <internalNodes>
            0 -1 44 5.1022591069340706e-03</internalNodes>
          <leafValues>
            -4.9862891435623169e-01 4.7611120343208313e-01</leafValues></_>
        <_>
          <internalNodes>
            0 -1 38 -2.8554057702422142e-02</internalNodes>
          <leafValues>
            2.7214863896369934e-01 -5.9517765045166016e-01</leafValues></_>
        <_>
          <internalNodes>
            0 -1 20 1.1488772928714752e-01</internalNodes>
          <leafValues>
            -4.4385027885437012e-01 4.1392198204994202e-01</leafValues></_>
        <_>
          <internalNodes>
            0 -1 23 -2.7658289764076471e-03</internalNodes>
          <leafValues>
            2.4607005715370178e-01 -6.5119773149490356e-01</leafValues></_>
        <_>
          <internalNodes>
            0 -1 6 1.3444705866277218e-02</internalNodes>
          <leafValues>
            -9.0264588594436646e-01 2.1179464459419250e-01</leafValues></_>
        <_>
          <internalNodes>
            0 -1 10 6.6739099565893412e-04</internalNodes>
          <leafValues>
            1.8188931047916412e-01 -7.0656454563140869e-01</leafValues></_>
        <_>
          <internalNodes>
            0 -1 43 -5.9911937569268048e-05</internalNodes>
          <leafValues>
            -5.8942437171936035e-01 2.1003600955009460e-01</leafValues></_>
        <_>
          <internalNodes>
            0 -1 37 1.3902741484344006e-03</internalNodes>
          <leafValues>
            -2.0331299304962158e-01 7.9497104883193970e-01</leafValues></_>
        <_>
          <internalNodes>
            0 -1 27 -1.5836965758353472e-04</internalNodes>
          <leafValues>
            -8.3992910385131836e-01 1.8072272837162018e-01</leafValues></_></weakClassifiers></_></stages>
  <features>
    <_>
      <rects>
        <_>
          0 7 6 17 -1.</_>
        <_>
          3 7 3 17 2.</_></rects>
      <tilted>0</tilted></_>
    <_>
      <rects>
        <_>
          3 9 24 16 -1.</_>
        <_>
          11 9 8 16 2.</_></rects>
      <tilted>0</tilted></_>
    <_>
      <rects>
        <_>
          3 12 26 6 -1.</_>
        <_>
          16 12 13 6 2.</_></rects>
      <tilted>0</tilted></_>
    <_>
      <rects>
        <_>
          4 7 24 17 -1.</_>
        <_>
          12 7 8 17 2.</_></rects>
      <tilted>0</tilted></_>
    <_>
      <rects>
        <_>
          4 9 10 13 -1.</_>
        <_>
          9 9 5 13 2.</_></rects>
      <tilted>0</tilted></_>
    <_>
      <rects>
        <_>
          4 10 14 6 -1.</_>
        <_>
          4 10 7 3 2.</_>
        <_>
          11 13 7 3 2.</_></rects>
      <tilted>0</tilted></_>
    <_>
      <rects>
        <_>
          4 13 18 5 -1.</_>
        <_>
          13 13 9 5 2.</_></rects>
      <tilted>0</tilted></_>
    <_>
      <rects>
        <_>
          5 0 6 20 -1.</_>
        <_>
          5 0 3 10 2.</_>
        <_>
          8 10 3 10 2.</_></rects>
      <tilted>0</tilted></_>
    <_>
      <rects>
        <_>
          5 8 8 15 -1.</_>
        <_>
          9 8 4 15 2.</_></rects>
      <tilted>0</tilted></_>
    <_>
      <rects>
        <_>
          5 11 6 9 -1.</_>
        <_>
          8 11 3 9 2.</_></rects>
      <tilted>0</tilted></_>
    <_>
      <rects>
        <_>
          5 14 2 3 -1.</_>
        <_>
          6 14 1 3 2.</_></rects>
      <tilted>0</tilted></_>
    <_>
      <rects>
        <_>
          5 14 9 3 -1.</_>
        <_>
          8 14 3 3 2.</_></rects>
      <tilted>0</tilted></_>
    <_>
      <rects>
        <_>
          5 14 18 4 -1.</_>
        <_>
          14 14 9 4 2.</_></rects>
      <tilted>0</tilted></_>
    <_>
      <rects>
        <_>
          5 15 6 14 -1.</_>
        <_>
          5 15 3 7 2.</_>
        <_>
          8 22 3 7 2.</_></rects>
      <tilted>0</tilted></_>
    <_>
      <rects>
        <_>
          6 5 17 8 -1.</_>
        <_>
          6 9 17 4 2.</_></rects>
      <tilted>0</tilted></_>
    <_>
      <rects>
        <_>
          6 14 4 3 -1.</_>
        <_>
          8 14 2 3 2.</_></rects>
      <tilted>0</tilted></_>
    <_>
      <rects>
        <_>
          8 0 15 6 -1.</_>
        <_>
          8 3 15 3 2.</_></rects>
      <tilted>0</tilted></_>
    <_>
      <rects>
        <_>
          8 12 12 16 -1.</_>
        <_>
          8 12 6 8 2.</_>
        <_>
          14 20 6 8 2.</_></rects>
      <tilted>0</tilted></_>
    <_>
      <rects>
        <_>
          8 13 18 5 -1.</_>
        <_>
          17 13 9 5 2.</_></rects>
      <tilted>0</tilted></_>
    <_>
      <rects>
        <_>
          9 0 2 30 -1.</_>
        <_>
          9 10 2 10 2.</_></rects>
      <tilted>0</tilted></_>
    <_>
      <rects>
        <_>
          9 3 13 10 -1.</_>
        <_>
          9 8 13 5 2.</_></rects>
      <tilted>0</tilted></_>
    <_>
      <rects>
        <_>
          9 12 6 7 -1.</_>
        <_>
          12 12 3 7 2.</_></rects>
      <tilted>0</tilted></_>
    <_>
      <rects>
        <_>
          9 12 18 6 -1.</_>
        <_>
          18 12 9 6 2.</_></rects>
      <tilted>0</tilted></_>
    <_>
      <rects>
        <_>
          9 13 6 7 -1.</_>
        <_>
          12 13 3 7 2.</_></rects>
      <tilted>0</tilted></_>
    <_>
      <rects>
        <_>
          10 0 1 30 -1.</_>
        <_>
          10 10 1 10 2.</_></rects>
      <tilted>0</tilted></_>
    <_>
      <rects>
        <_>
          10 4 9 8 -1.</_>
        <_>
          10 8 9 4 2.</_></rects>
      <tilted>0</tilted></_>
    <_>
      <rects>
        <_>
          10 4 11 10 -1.</_>
        <_>
          10 9 11 5 2.</_></rects>
      <tilted>0</tilted></_>
    <_>
      <rects>
        <_>
          10 10 4 2 -1.</_>
        <_>
          10 11 4 1 2.</_></rects>
      <tilted>0</tilted></_>
    <_>
      <rects>
        <_>
          10 12 16 4 -1.</_>
        <_>
          10 14 16 2 2.</_></rects>
      <tilted>0</tilted></_>
    <_>
      <rects>
        <_>
          10 18 12 8 -1.</_>
        <_>
          10 22 12 4 2.</_></rects>
      <tilted>0</tilted></_>
    <_>
      <rects>
        <_>
          10 19 10 8 -1.</_>
        <_>
          10 23 10 4 2.</_></rects>
      <tilted>0</tilted></_>
    <_>
      <rects>
        <_>
          10 20 10 6 -1.</_>
        <_>
          10 23 10 3 2.</_></rects>
      <tilted>0</tilted></_>
    <_>
      <rects>
        <_>
          11 5 10 6 -1.</_>
        <_>
          11 8 10 3 2.</_></rects>
      <tilted>0</tilted></_>
    <_>
      <rects>
        <_>
          11 15 6 4 -1.</_>
        <_>
          11 15 3 2 2.</_>
        <_>
          14 17 3 2 2.</_></rects>
      <tilted>0</tilted></_>
    <_>
      <rects>
        <_>
          11 15 18 6 -1.</_>
        <_>
          11 15 9 3 2.</_>
        <_>
          20 18 9 3 2.</_></rects>
      <tilted>0</tilted></_>
    <_>
      <rects>
        <_>
          11 18 9 10 -1.</_>
        <_>
          11 23 9 5 2.</_></rects>
      <tilted>0</tilted></_>
    <_>
      <rects>
        <_>
          12 11 2 1 -1.</_>
        <_>
          13 11 1 1 2.</_></rects>
      <tilted>0</tilted></_>
    <_>
      <rects>
        <_>
          12 14 2 2 -1.</_>
        <_>
          13 14 1 2 2.</_></rects>
      <tilted>0</tilted></_>
    <_>
      <rects>
        <_>
          12 20 8 6 -1.</_>
        <_>
          12 23 8 3 2.</_></rects>
      <tilted>0</tilted></_>
    <_>
      <rects>
        <_>
          13 0 4 6 -1.</_>
        <_>
          13 3 4 3 2.</_></rects>
      <tilted>0</tilted></_>
    <_>
      <rects>
        <_>
          14 11 3 8 -1.</_>
        <_>
          14 15 3 4 2.</_></rects>
      <tilted>0</tilted></_>
    <_>
      <rects>
        <_>
          15 11 1 2 -1.</_>
        <_>
          15 12 1 1 2.</_></rects>
      <tilted>0</tilted></_>
    <_>
      <rects>
        <_>
          15 25 4 1 -1.</_>
        <_>
          17 25 2 1 2.</_></rects>
      <tilted>0</tilted></_>
    <_>
      <rects>
        <_>
          16 10 2 1 -1.</_>
        <_>
          17 10 1 1 2.</_></rects>
      <tilted>0</tilted></_>
    <_>
      <rects>
        <_>
          16 12 6 8 -1.</_>
        <_>
          19 12 3 8 2.</_></rects>
      <tilted>0</tilted></_>
    <_>
      <rects>
        <_>
          16 13 6 6 -1.</_>
        <_>
          19 13 3 6 2.</_></rects>
      <tilted>0</tilted></_>
    <_>
      <rects>
        <_>
          16 25 2 1 -1.</_>
        <_>
          17 25 1 1 2.</_></rects>
      <tilted>0</tilted></_>
    <_>
      <rects>
        <_>
          17 11 2 1 -1.</_>
        <_>
          18 11 1 1 2.</_></rects>
      <tilted>0</tilted></_>
    <_>
      <rects>
        <_>
          18 3 5 16 -1.</_>
        <_>
          18 11 5 8 2.</_></rects>
      <tilted>0</tilted></_>
    <_>
      <rects>
        <_>
          18 12 8 1 -1.</_>
        <_>
          22 12 4 1 2.</_></rects>
      <tilted>0</tilted></_>
    <_>
      <rects>
        <_>
          18 14 4 3 -1.</_>
        <_>
          20 14 2 3 2.</_></rects>
      <tilted>0</tilted></_>
    <_>
      <rects>
        <_>
          18 18 8 2 -1.</_>
        <_>
          22 18 4 2 2.</_></rects>
      <tilted>0</tilted></_>
    <_>
      <rects>
        <_>
          19 11 8 9 -1.</_>
        <_>
          23 11 4 9 2.</_></rects>
      <tilted>0</tilted></_>
    <_>
      <rects>
        <_>
          19 11 8 10 -1.</_>
        <_>
          23 11 4 10 2.</_></rects>
      <tilted>0</tilted></_>
    <_>
      <rects>
        <_>
          19 17 8 1 -1.</_>
        <_>
          23 17 4 1 2.</_></rects>
      <tilted>0</tilted></_>
    <_>
      <rects>
        <_>
          20 2 1 27 -1.</_>
        <_>
          20 11 1 9 2.</_></rects>
      <tilted>0</tilted></_>
    <_>
      <rects>
        <_>
          24 15 1 4 -1.</_>
        <_>
          24 17 1 2 2.</_></rects>
      <tilted>0</tilted></_></features></cascade>
</opencv_storage>
