<?xml version="1.0"?>
<opencv_storage>
<cascade>
  <stageType>BOOST</stageType>
  <featureType>HAAR</featureType>
  <height>20</height>
  <width>20</width>
  <stageParams>
    <boostType>GAB</boostType>
    <minHitRate>9.9500000476837158e-01</minHitRate>
    <maxFalseAlarm>3.0000001192092896e-01</maxFalseAlarm>
    <weightTrimRate>9.4999999999999996e-01</weightTrimRate>
    <maxDepth>1</maxDepth>
    <maxWeakCount>100</maxWeakCount></stageParams>
  <featureParams>
    <maxCatCount>0</maxCatCount>
    <featSize>1</featSize>
    <mode>BASIC</mode></featureParams>
  <stageNum>8</stageNum>
  <stages>
    <!-- stage 0 -->
    <_>
      <maxWeakCount>2</maxWeakCount>
      <stageThreshold>-9.9507882259786129e-04</stageThreshold>
      <weakClassifiers>
        <_>
          <internalNodes>
            0 -1 4 4.7476537525653839e-02</internalNodes>
          <leafValues>
            -9.5595854520797729e-01 9.7507518529891968e-01</leafValues></_>
        <_>
          <internalNodes>
            0 -1 42 -3.9228148758411407e-02</internalNodes>
          <leafValues>
            9.5496344566345215e-01 -9.3334627151489258e-01</leafValues></_></weakClassifiers></_>
    <!-- stage 1 -->
    <_>
      <maxWeakCount>2</maxWeakCount>
      <stageThreshold>-5.8026596903800964e-02</stageThreshold>
      <weakClassifiers>
        <_>
          <internalNodes>
            0 -1 21 -6.4506545662879944e-02</internalNodes>
          <leafValues>
            8.8291412591934204e-01 -8.5219830274581909e-01</leafValues></_>
        <_>
          <internalNodes>
            0 -1 16 5.5384397506713867e-02</internalNodes>
          <leafValues>
            -9.1360175609588623e-01 7.9417169094085693e-01</leafValues></_></weakClassifiers></_>
    <!-- stage 2 -->
    <_>
      <maxWeakCount>4</maxWeakCount>
      <stageThreshold>-1.2118543386459351e+00</stageThreshold>
      <weakClassifiers>
        <_>
          <internalNodes>
            0 -1 8 -5.0087668001651764e-02</internalNodes>
          <leafValues>
            -7.0507729053497314e-01 8.5774803161621094e-01</leafValues></_>
        <_>
          <internalNodes>
            0 -1 5 2.4108937010169029e-02</internalNodes>
          <leafValues>
            -6.7563664913177490e-01 8.0683398246765137e-01</leafValues></_>
        <_>
          <internalNodes>
            0 -1 44 -3.9889056235551834e-02</internalNodes>
          <leafValues>
            8.1273174285888672e-01 -7.0804202556610107e-01</leafValues></_>
        <_>
          <internalNodes>
            0 -1 10 4.3983288109302521e-02</internalNodes>
          <leafValues>
            -6.8592369556427002e-01 5.8018994331359863e-01</leafValues></_></weakClassifiers></_>
    <!-- stage 3 -->
    <_>
      <maxWeakCount>5</maxWeakCount>
      <stageThreshold>-7.8430289030075073e-01</stageThreshold>
      <weakClassifiers>
        <_>
          <internalNodes>
            0 -1 41 -5.9958159923553467e-02</internalNodes>
          <leafValues>
            7.9048818349838257e-01 -7.7035915851593018e-01</leafValues></_>
        <_>
          <internalNodes>
            0 -1 14 -1.4361880719661713e-02</internalNodes>
          <leafValues>
            -5.8130925893783569e-01 7.8550028800964355e-01</leafValues></_>
        <_>
          <internalNodes>
            0 -1 27 -3.8829788565635681e-02</internalNodes>
          <leafValues>
            5.5465930700302124e-01 -6.8317037820816040e-01</leafValues></_>
        <_>
          <internalNodes>
            0 -1 22 5.9749722480773926e-02</internalNodes>
          <leafValues>
            -6.4980715513229370e-01 6.0227125883102417e-01</leafValues></_>
        <_>
          <internalNodes>
            0 -1 18 -3.9940536953508854e-03</internalNodes>
          <leafValues>
            5.3353351354598999e-01 -6.8875342607498169e-01</leafValues></_></weakClassifiers></_>
    <!-- stage 4 -->
    <_>
      <maxWeakCount>6</maxWeakCount>
      <stageThreshold>-1.1743294000625610e+00</stageThreshold>
      <weakClassifiers>
        <_>
          <internalNodes>
            0 -1 3 8.4012746810913086e-02</internalNodes>
          <leafValues>
            -6.2525051832199097e-01 7.3580145835876465e-01</leafValues></_>
        <_>
          <internalNodes>
            0 -1 45 -4.5289725065231323e-02</internalNodes>
          <leafValues>
            7.0599412918090820e-01 -5.2456569671630859e-01</leafValues></_>
        <_>
          <internalNodes>
            0 -1 18 -9.8265602719038725e-04</internalNodes>
          <leafValues>
            4.3885153532028198e-01 -7.6950687170028687e-01</leafValues></_>
        <_>
          <internalNodes>
            0 -1 24 -3.9154015481472015e-02</internalNodes>
          <leafValues>
            3.5547739267349243e-01 -8.7195837497711182e-01</leafValues></_>
        <_>
          <internalNodes>
            0 -1 12 -2.9276497662067413e-02</internalNodes>
          <leafValues>
            7.1631979942321777e-01 -4.8711046576499939e-01</leafValues></_>
        <_>
          <internalNodes>
            0 -1 15 1.4192271232604980e-01</internalNodes>
          <leafValues>
            -4.6534776687622070e-01 6.3586604595184326e-01</leafValues></_></weakClassifiers></_>
    <!-- stage 5 -->
    <_>
      <maxWeakCount>8</maxWeakCount>
      <stageThreshold>-8.3931750059127808e-01</stageThreshold>
      <weakClassifiers>
        <_>
          <internalNodes>
            0 -1 6 7.4008251540362835e-03</internalNodes>
          <leafValues>
            -9.5194083452224731e-01 5.7868736982345581e-01</leafValues></_>
        <_>
          <internalNodes>
            0 -1 23 -7.7714085578918457e-02</internalNodes>
          <leafValues>
            -5.3404587507247925e-01 6.6046291589736938e-01</leafValues></_>
        <_>
          <internalNodes>
            0 -1 20 -3.3898919820785522e-02</internalNodes>
          <leafValues>
            4.2958968877792358e-01 -7.3651617765426636e-01</leafValues></_>
        <_>
          <internalNodes>
            0 -1 45 -5.2933145314455032e-02</internalNodes>
          <leafValues>
            5.6151860952377319e-01 -4.7014355659484863e-01</leafValues></_>
        <_>
          <internalNodes>
            0 -1 17 -1.7872862517833710e-03</internalNodes>
          <leafValues>
            4.9109044671058655e-01 -4.8247501254081726e-01</leafValues></_>
        <_>
          <internalNodes>
            0 -1 31 -2.7928501367568970e-03</internalNodes>
          <leafValues>
            -7.5382322072982788e-01 2.7413979172706604e-01</leafValues></_>
        <_>
          <internalNodes>
            0 -1 33 5.7072240859270096e-02</internalNodes>
          <leafValues>
            -7.8769302368164063e-01 2.5895875692367554e-01</leafValues></_>
        <_>
          <internalNodes>
            0 -1 26 -5.6669443845748901e-02</internalNodes>
          <leafValues>
            2.5508320331573486e-01 -8.3963102102279663e-01</leafValues></_></weakClassifiers></_>
    <!-- stage 6 -->
    <_>
      <maxWeakCount>10</maxWeakCount>
      <stageThreshold>-8.4707003831863403e-01</stageThreshold>
      <weakClassifiers>
        <_>
          <internalNodes>
            0 -1 18 -4.6712756156921387e-03</internalNodes>
          <leafValues>
            6.5772938728332520e-01 -4.5040485262870789e-01</leafValues></_>
        <_>
          <internalNodes>
            0 -1 16 8.1063635647296906e-02</internalNodes>
          <leafValues>
            -6.7039203643798828e-01 4.6003106236457825e-01</leafValues></_>
        <_>
          <internalNodes>
            0 -1 38 -3.5690303891897202e-02</internalNodes>
          <leafValues>
            -4.4274386763572693e-01 6.2872368097305298e-01</leafValues></_>
        <_>
          <internalNodes>
            0 -1 19 -1.1286107823252678e-02</internalNodes>
          <leafValues>
            2.6271578669548035e-01 -9.8345172405242920e-01</leafValues></_>
        <_>
          <internalNodes>
            0 -1 9 6.7197181284427643e-02</internalNodes>
          <leafValues>
            -4.1994088888168335e-01 5.3359705209732056e-01</leafValues></_>
        <_>
          <internalNodes>
            0 -1 35 6.2067140825092793e-03</internalNodes>
          <leafValues>
            -5.5032187700271606e-01 4.3725147843360901e-01</leafValues></_>
        <_>
          <internalNodes>
            0 -1 40 -2.3150781169533730e-02</internalNodes>
          <leafValues>
            2.9808792471885681e-01 -7.1744710206985474e-01</leafValues></_>
        <_>
          <internalNodes>
            0 -1 39 1.7780398484319448e-03</internalNodes>
          <leafValues>
            -3.0573108792304993e-01 6.0544979572296143e-01</leafValues></_>
        <_>
          <internalNodes>
            0 -1 2 2.3988252505660057e-02</internalNodes>
          <leafValues>
            -9.9197715520858765e-01 1.9656126201152802e-01</leafValues></_>
        <_>
          <internalNodes>
            0 -1 34 2.0337954629212618e-04</internalNodes>
          <leafValues>
            1.9159375131130219e-01 -7.1104919910430908e-01</leafValues></_></weakClassifiers></_>
    <!-- stage 7 -->
    <_>
      <maxWeakCount>13</maxWeakCount>
      <stageThreshold>-7.4674314260482788e-01</stageThreshold>
      <weakClassifiers>
        <_>
          <internalNodes>
            0 -1 32 2.2443386260420084e-03</internalNodes>
          <leafValues>
            5.3550451993942261e-01 -6.7108750343322754e-01</leafValues></_>
        <_>
          <internalNodes>
            0 -1 0 7.3724240064620972e-02</internalNodes>
          <leafValues>
            -5.5053347349166870e-01 4.2899781465530396e-01</leafValues></_>
        <_>
          <internalNodes>
            0 -1 37 -1.6062085342127830e-04</internalNodes>
          <leafValues>
            -6.1451572179794312e-01 3.4160906076431274e-01</leafValues></_>
        <_>
          <internalNodes>
            0 -1 13 -2.0431693643331528e-02</internalNodes>
          <leafValues>
            4.2232713103294373e-01 -4.5546019077301025e-01</leafValues></_>
        <_>
          <internalNodes>
            0 -1 29 -1.6053295694291592e-03</internalNodes>
          <leafValues>
            6.6613751649856567e-01 -3.1637248396873474e-01</leafValues></_>
        <_>
          <internalNodes>
            0 -1 7 5.6259147822856903e-04</internalNodes>
          <leafValues>
            2.8277754783630371e-01 -5.8013552427291870e-01</leafValues></_>
        <_>
          <internalNodes>
            0 -1 25 -5.3355839103460312e-02</internalNodes>
          <leafValues>
            2.1055823564529419e-01 -7.6043623685836792e-01</leafValues></_>
        <_>
          <internalNodes>
            0 -1 28 -2.2769793868064880e-03</internalNodes>
          <leafValues>
            -8.7052726745605469e-01 1.2756855785846710e-01</leafValues></_>
        <_>
          <internalNodes>
            0 -1 30 -5.8863870799541473e-03</internalNodes>
          <leafValues>
            7.0852375030517578e-01 -2.4751006066799164e-01</leafValues></_>
        <_>
          <internalNodes>
            0 -1 43 -7.7038290910422802e-03</internalNodes>
          <leafValues>
            2.8687778115272522e-01 -5.7382905483245850e-01</leafValues></_>
        <_>
          <internalNodes>
            0 -1 11 2.3164080455899239e-02</internalNodes>
          <leafValues>
            -7.0909011363983154e-01 1.9224223494529724e-01</leafValues></_>
        <_>
          <internalNodes>
            0 -1 36 -6.5938318148255348e-03</internalNodes>
          <leafValues>
            4.2672356963157654e-01 -4.1749036312103271e-01</leafValues></_>
        <_>
          <internalNodes>
            0 -1 1 -1.4966151118278503e-01</internalNodes>
          <leafValues>
            -3.7413641810417175e-01 3.7342086434364319e-01</leafValues></_></weakClassifiers></_></stages>
  <features>
    <_>
      <rects>
        <_>
          2 0 6 12 -1.</_>
        <_>
          2 0 3 6 2.</_>
        <_>
          5 6 3 6 2.</_></rects>
      <tilted>0</tilted></_>
    <_>
      <rects>
        <_>
          2 6 18 10 -1.</_>
        <_>
          8 6 6 10 2.</_></rects>
      <tilted>0</tilted></_>
    <_>
      <rects>
        <_>
          2 8 12 5 -1.</_>
        <_>
          8 8 6 5 2.</_></rects>
      <tilted>0</tilted></_>
    <_>
      <rects>
        <_>
          3 5 6 10 -1.</_>
        <_>
          6 5 3 10 2.</_></rects>
      <tilted>0</tilted></_>
    <_>
      <rects>
        <_>
          3 6 6 9 -1.</_>
        <_>
          6 6 3 9 2.</_></rects>
      <tilted>0</tilted></_>
    <_>
      <rects>
        <_>
          3 8 4 4 -1.</_>
        <_>
          5 8 2 4 2.</_></rects>
      <tilted>0</tilted></_>
    <_>
      <rects>
        <_>
          3 9 12 3 -1.</_>
        <_>
          9 9 6 3 2.</_></rects>
      <tilted>0</tilted></_>
    <_>
      <rects>
        <_>
          3 10 2 1 -1.</_>
        <_>
          4 10 1 1 2.</_></rects>
      <tilted>0</tilted></_>
    <_>
      <rects>
        <_>
          3 11 9 2 -1.</_>
        <_>
          6 11 3 2 2.</_></rects>
      <tilted>0</tilted></_>
    <_>
      <rects>
        <_>
          4 6 4 9 -1.</_>
        <_>
          6 6 2 9 2.</_></rects>
      <tilted>0</tilted></_>
    <_>
      <rects>
        <_>
          4 6 4 10 -1.</_>
        <_>
          6 6 2 10 2.</_></rects>
      <tilted>0</tilted></_>
    <_>
      <rects>
        <_>
          5 3 3 10 -1.</_>
        <_>
          5 8 3 5 2.</_></rects>
      <tilted>0</tilted></_>
    <_>
      <rects>
        <_>
          6 0 8 4 -1.</_>
        <_>
          6 2 8 2 2.</_></rects>
      <tilted>0</tilted></_>
    <_>
      <rects>
        <_>
          6 0 10 4 -1.</_>
        <_>
          6 2 10 2 2.</_></rects>
      <tilted>0</tilted></_>
    <_>
      <rects>
        <_>
          6 1 1 18 -1.</_>
        <_>
          6 7 1 6 2.</_></rects>
      <tilted>0</tilted></_>
    <_>
      <rects>
        <_>
          6 1 9 8 -1.</_>
        <_>
          6 5 9 4 2.</_></rects>
      <tilted>0</tilted></_>
    <_>
      <rects>
        <_>
          6 3 8 6 -1.</_>
        <_>
          6 6 8 3 2.</_></rects>
      <tilted>0</tilted></_>
    <_>
      <rects>
        <_>
          6 7 2 4 -1.</_>
        <_>
          6 7 1 2 2.</_>
        <_>
          7 9 1 2 2.</_></rects>
      <tilted>0</tilted></_>
    <_>
      <rects>
        <_>
          6 8 4 5 -1.</_>
        <_>
          8 8 2 5 2.</_></rects>
      <tilted>0</tilted></_>
    <_>
      <rects>
        <_>
          6 8 12 4 -1.</_>
        <_>
          12 8 6 4 2.</_></rects>
      <tilted>0</tilted></_>
    <_>
      <rects>
        <_>
          6 9 2 10 -1.</_>
        <_>
          6 14 2 5 2.</_></rects>
      <tilted>0</tilted></_>
    <_>
      <rects>
        <_>
          6 12 8 6 -1.</_>
        <_>
          6 15 8 3 2.</_></rects>
      <tilted>0</tilted></_>
    <_>
      <rects>
        <_>
          7 2 6 6 -1.</_>
        <_>
          7 5 6 3 2.</_></rects>
      <tilted>0</tilted></_>
    <_>
      <rects>
        <_>
          7 3 6 9 -1.</_>
        <_>
          7 6 6 3 2.</_></rects>
      <tilted>0</tilted></_>
    <_>
      <rects>
        <_>
          7 12 5 6 -1.</_>
        <_>
          7 15 5 3 2.</_></rects>
      <tilted>0</tilted></_>
    <_>
      <rects>
        <_>
          7 12 6 6 -1.</_>
        <_>
          7 15 6 3 2.</_></rects>
      <tilted>0</tilted></_>
    <_>
      <rects>
        <_>
          7 12 7 6 -1.</_>
        <_>
          7 15 7 3 2.</_></rects>
      <tilted>0</tilted></_>
    <_>
      <rects>
        <_>
          7 13 8 4 -1.</_>
        <_>
          7 15 8 2 2.</_></rects>
      <tilted>0</tilted></_>
    <_>
      <rects>
        <_>
          8 7 8 2 -1.</_>
        <_>
          8 7 4 1 2.</_>
        <_>
          12 8 4 1 2.</_></rects>
      <tilted>0</tilted></_>
    <_>
      <rects>
        <_>
          8 10 2 2 -1.</_>
        <_>
          8 10 1 1 2.</_>
        <_>
          9 11 1 1 2.</_></rects>
      <tilted>0</tilted></_>
    <_>
      <rects>
        <_>
          8 10 4 2 -1.</_>
        <_>
          8 10 2 1 2.</_>
        <_>
          10 11 2 1 2.</_></rects>
      <tilted>0</tilted></_>
    <_>
      <rects>
        <_>
          8 10 5 4 -1.</_>
        <_>
          8 12 5 2 2.</_></rects>
      <tilted>0</tilted></_>
    <_>
      <rects>
        <_>
          8 12 10 2 -1.</_>
        <_>
          8 12 5 1 2.</_>
        <_>
          13 13 5 1 2.</_></rects>
      <tilted>0</tilted></_>
    <_>
      <rects>
        <_>
          9 2 6 8 -1.</_>
        <_>
          9 6 6 4 2.</_></rects>
      <tilted>0</tilted></_>
    <_>
      <rects>
        <_>
          10 7 1 2 -1.</_>
        <_>
          10 8 1 1 2.</_></rects>
      <tilted>0</tilted></_>
    <_>
      <rects>
        <_>
          11 4 4 8 -1.</_>
        <_>
          11 4 2 4 2.</_>
        <_>
          13 8 2 4 2.</_></rects>
      <tilted>0</tilted></_>
    <_>
      <rects>
        <_>
          11 6 2 6 -1.</_>
        <_>
          11 9 2 3 2.</_></rects>
      <tilted>0</tilted></_>
    <_>
      <rects>
        <_>
          11 7 2 1 -1.</_>
        <_>
          12 7 1 1 2.</_></rects>
      <tilted>0</tilted></_>
    <_>
      <rects>
        <_>
          11 8 6 4 -1.</_>
        <_>
          13 8 2 4 2.</_></rects>
      <tilted>0</tilted></_>
    <_>
      <rects>
        <_>
          11 10 2 2 -1.</_>
        <_>
          11 10 1 1 2.</_>
        <_>
          12 11 1 1 2.</_></rects>
      <tilted>0</tilted></_>
    <_>
      <rects>
        <_>
          11 12 3 6 -1.</_>
        <_>
          11 15 3 3 2.</_></rects>
      <tilted>0</tilted></_>
    <_>
      <rects>
        <_>
          12 6 6 8 -1.</_>
        <_>
          15 6 3 8 2.</_></rects>
      <tilted>0</tilted></_>
    <_>
      <rects>
        <_>
          12 7 6 7 -1.</_>
        <_>
          15 7 3 7 2.</_></rects>
      <tilted>0</tilted></_>
    <_>
      <rects>
        <_>
          12 11 6 1 -1.</_>
        <_>
          15 11 3 1 2.</_></rects>
      <tilted>0</tilted></_>
    <_>
      <rects>
        <_>
          13 6 4 8 -1.</_>
        <_>
          15 6 2 8 2.</_></rects>
      <tilted>0</tilted></_>
    <_>
      <rects>
        <_>
          13 7 4 7 -1.</_>
        <_>
          15 7 2 7 2.</_></rects>
      <tilted>0</tilted></_></features></cascade>
</opencv_storage>
